-0.12292533946297807
0.16327577442326394
-0.17522334546008225
-0.36927246878279124
0.4626792507549702
0.25610596159825166
0.14540925982604094
-0.14971692691455843
-0.12558517609092057
0.23546074794849373
-0.023917135747504318
0.1363343934340182
0.31294731929254155
-0.3289616104482112
0.2691220996054857
0.2612965375582816
0.17541359516953967
-0.5323381773420568
-0.3656481701561813
0.2726417010911946
-0.4007185028879712
-0.35597653224092585
-0.1318639116832367
-0.1388583956436103
-0.25231032248988566
-0.031735717594773546
-0.4099113411569769
-0.32950962550421
0.13193004992265972
0.2827156405459906
0.2628400323902411
-0.119039723104309
-0.681756820955473
-0.1499339700030032
0.35086719208850553
0.700336756742054
-0.07830110769807055
0.6703227627434718
0.4508120754698476
-0.3184309010557916
0.12875413377493553
0.40026854751037116
-0.0920743900637299
0.3700073985603681
-0.4691947140829176
-0.5657302540727747
-0.6511061175895787
0.2767335770476974
0.2447094998559748
0.9611062918252177
1.6550317379665513
0.5531755940685179
-0.6110772662287788
-0.5348246158975509
-0.6654661335405812
-0.13911567161130295
-0.2785974631676016
-0.08396498918733951
-0.23654501643628148
-0.15034606002900713
-0.41919475169373654
0.10433529632567158
0.6226425897151738
1.1352056330063554
0.827596979608094
0.9541148936259931
0.3805593360461619
0.4070949711449817
-0.1713874789863624
-0.36715187713180014
-0.49251238980975853
0.04175121491169348
0.29915171537793744
0.015759255947866698
0.3545133963379739
0.44529299321045734
0.35924340510143044
-1.4507911783557457
-0.685996390751771
-0.11307489824380762
1.1541787047369565
1.721229254304306
-0.17992755400049967
0.06557484026108415
-0.41958266971871766
-0.09333691541934837
-0.3034048883613155
1.0204068360329182
1.400938600856002
-0.21056802983259512
-1.5054986673533368
-1.356684085115521
-2.3396544549030915
-0.7957599994216207
2.1463414156189238
1.5558505221897578
0.22562979233749805
-0.37853544650778764
0.36438528078606
-0.210568696520428
0.630083571789468
1.0852047731384002
1.484413894058059
-0.8482861293896874
-1.5118991300046127
-1.61837826252277
-2.6929389172583704
-0.3923127261437923
0.8468496960185643
1.0587504461776938
0.4690054316204187
0.22275949464977743
0.295794265386565
0.14748140983509012
0.8044276527259566
1.6071330090637557
0.6426226501766695
-0.7089417593979072
-0.8463297696122457
-1.4245891494542269
-1.428555597284739
-0.365471028763705
0.34561520285213004
0.7330465308303588
-0.3646369139241028
0.4033001654500907
0.008150050728407784
-0.2389180769019674
0.18079574644414848
1.1072226964663943
0.48427591379756824
-0.35986672581583257
-0.46175471991293016
-0.4781976630329396
-0.36515286315291146
-0.24702753985523143
-0.4429336713243854
-0.02081856130031974
0.12080888751886235
0.39097239011082474
-0.169716330383716
0.21897293461646347
0.3823520755396552
0.4378529184042461
0.6911223069021605
1.0005593970717797
0.46088821683624814
0.5617900353412485
-0.0053987286123002385
-0.07424457152532639
0.5329161109809047
-0.466612349920016
0.15502569508600272
-0.35240599600439
0.4562909819732737
-0.2582681381073776
0.07167394105950438
0.026371841857359715
0.07320708687180538
0.39956993121750806
0.990292432474026
0.8261285338475828
0.523037765581258
0.28706590524274755
0.21109352440574147
0.1526615062595253
-0.4679258193898346
0.35353388768694943
-0.24503807437940256
-0.33215198624752246
0.26063786874959455
-0.11230947131573782
0.026777374165167594
-0.49820889119799866
-0.3140508648355185
-0.5489921600137728
0.22902358423275787
-0.28714420613967645
-0.40194394070362455
0.24233983927237204
-0.481286624852534
-0.053319794563648035
0.32995737367465827
0.3683531382140392
0.38625149580195495
0.27207806555855174
-0.32032848845461187
-0.17299092150912662
0.4229446851979483
0.018910677110114536
0.41417974147973563
-0.2310988438101492
-0.06730977513097298
0.4451282847991502
-0.21273062724472638
-0.3667959605105618
0.12989096930894023
-0.31518714098415385
0.06633973398309856
-0.016996634791319284
0.08131538347737391
0.3116240101104739
0.33692734411048597
-0.3391633676838962
-0.32577593750268974
-0.40067743707977643
0.14920342681334883
-0.17940433752044407
-0.05741933899289264
-0.2780833355053538
-0.22590177087371835
0.13724402492220938
0.027613697262201108
-0.06532464808501684
-0.1281642554978115
-0.3343953227588249
-0.060589286832573724
0.3217701868569679
0.08356412862657375
0.3884881263761615
-0.6496433816618777
0.31084767346864456
-0.3574654403291336
-0.3833648364262679
-0.2852351690210878
0.4971299516748728
0.2255989675016903
0.025871161747124265
0.14002594420283743
-0.19732481719162745
-0.6537845511747933
0.39459496174700887
-0.5794671543664837
0.29047723279422083
1.3515683792547444
0.37072990038760273
0.13852547347335487
-0.13870891994958282
0.1976707021679201
0.2705121329545085
0.35404306580156264
-0.32015670574568206
-0.024574324537809247
-0.1705430890654304
-0.7034022015269155
0.03948725765526166
-0.013675940285916972
-0.12250711673067101
1.0205339216569675
-0.15762038072120105
-0.1699988162956947
0.2873677583429879
0.42900190905463303
0.2036906699408029
0.38348794003243003
0.08685425254609273
-0.2858792077513175
-0.03373895128374764
-0.2805394291952613
0.23830636932382276
1.4090774807621165
0.3931573077866599
0.04458055024509225
-0.8128257752284868
-0.875097561293523
-0.065991485299255
0.007824257550554697
-0.48321262394138403
0.3481876898794188
-0.06198949210986512
0.2280782635980723
0.48230423338356554
-0.704308084028119
0.43387153760154096
2.4226249985755492
-0.8707650662831303
-0.7459545665076516
0.09969278894174595
-0.2188533301627541
0.30544044906581996
0.24533291872633703
0.13103077583502215
0.491364633659068
0.2943189053234448
0.3426239977286982
-0.10543878783382908
-1.9305616515170942
1.37934036371097
1.3335708116157052
-0.9256759556518662
0.5823745828252924
0.2121144760832889
-0.1879751603481186
-0.20289314768411515
-0.43109489313054594
0.1701163590078316
0.29697821692815146
-0.0495775979524612
0.3677621302170254
-0.04454255658048586
-1.4608470737791948
2.771963730430545
0.34103009773509024
-1.0032265088575458
-0.29400483087788276
0.05602072701986669
-0.3912547982718464
-0.41229964084043297
0.3159260155780032
0.05494705760681727
-0.24462239380089643
0.24788877482817562
0.42487540466770674
-0.29766989711279307
-0.49781674116320096
2.914433720016423
-0.15474754767729917
-0.726368668145877
-0.08136278818626179
-0.49469177251308716
-0.0820993598260712
0.23592679022691848
0.4716368974989122
0.291358775791535
-0.11740078887667016
-0.29688580990339036
-0.9297422662896795
-0.49622538750458833
0.7980808627763977
1.1442122225216511
0.5186690048215707
-0.8072674049862969
-0.24901266051848708
-0.3737461066635097
-0.1911342834832058
-0.3807526964490763
0.2349792392420763
-0.11324820527637713
0.1988919986084411
-0.47886173828967094
-0.8446926831373213
0.5250549155379686
0.50524876163062
0.10119271332463908
1.0486313072231939
0.17168862059541412
-0.3871525723054466
-0.1354190917884477
-0.5521477290769755
-0.11215293467991044
0.2287722540015847
0.349004683535642
-0.3968121261940801
-0.08992520116680232
0.5673958844530458
0.4233000734642304
-0.2877795109179458
0.10971247348150319
0.4041908938113726
0.3887128099919676
0.3078458473811522
-0.3466363713433108
0.4049906727755923
-0.32147785466494727
-0.06969558816362957
0.01209664564871389
-0.44677160450011405
-0.5363172504047439
-0.8384185733246081
-0.3132035575333577
-0.4179078181840276
-0.6246961436210057
0.23981867525972722
0.2331891059161331
-0.2604133145888901
0.3372116269399418
0.055707225935264976
0.11121293502186425
0.2936187039828805
-0.5030526284581476
0.31445943474100424
-0.15984611543186453
-0.3035666427178398
0.38958694428257445
0.10491914951564572
-0.09589435406859038
0.395013116703114
-0.41355452185362307
0.2883719175049059
0.018031651485471117
0.36641474783811334
-0.3235836213116959
0.03994839908333184
-0.028794649966353492
0.46250171588016104
0.25951629063976805
0.4904871676430702
-0.20489101309839058
0.1278941658239807
0.2428436705342096
-0.3066185096137111
0.10773877620586754
0.28502184429269545
-0.3612575977454051
-0.5309479785774213
0.2844154476159224
0.22355119511417743
-0.019180979929510237
0.4448534309865292
0.31165889000789304
0.09909751198810675
-0.07226463942519072
0.3014190837145401
0.5120165800572942
0.5377722712837785
0.04058543176573043
0.11410456538988024
-0.4063187399621174
0.42054826655291927
-0.15155805760016844
-0.3987503122763507
0.08271372516289781
0.41745025299131444
-0.26615373527213754
0.7004803488542412
0.8012863604301733
0.9062945351851238
1.3847105372847737
0.8417161945753824
0.487487070531779
0.7268663703165285
-0.5105736643909926
0.3691648653057722
-0.6783466359841978
0.16310642437570116
0.05477458309751827
0.09398820890249564
0.28301904129973315
0.2319457994850873
0.20527842789423145
0.012147194440989004
-0.17867072431772205
0.27182831908589844
0.07878050693580887
0.0007306365113735489
-0.28317142450426075
0.06814467004695421
-0.4539566610539069
-0.41878290250707634
0.31361535247196426
0.14652847289725424
0.31198239794857235
0.5616385857721675
-0.5018671300252862
-0.6319094174548133
-0.307205323047849
-0.8126394372937189
-1.104421493793905
0.35664198230893684
-0.34911676495602717
0.06147634955933756
-1.0757004488114648
-0.05316111759321966
-0.2855382386206195
-0.29825073537327573
-0.2790512873257101
-0.07429686902367755
-0.7620183145616038
-1.3821315990054135
-2.1021240818526663
-2.166606506780989
-0.38705457124869447
0.035891376800133115
0.6098018304317162
0.512794088838452
-0.7142195496498368
-0.17299971448261833
0.43769497809810626
-0.2596149438808369
-0.02466756163404288
-0.7850270476330372
-1.3779002601283965
-2.0478144155398796
-1.737449411498625
-1.474280283656952
-0.6504919767039758
-0.9943069401479865
0.3201485459067352
-0.7587595249544754
-0.9921635107327569
0.19478690650956168
0.4504518411119171
-0.2879474589464258
0.07486183147077591
-0.6548852857132378
-0.4820489576532641
-0.19263276753149736
0.8678585202456605
0.446799159847676
-0.46232472025487226
0.285772310174901
-0.9411883444635591
-1.5563778519942042
-0.7190308251206662
-0.09896295438652221
0.35584424988809527
0.4617331605381617
-0.25296234668236217
0.6707797309232318
0.7291414417147999
0.4722855258146306
0.43411756414386476
0.6372415791501216
0.795380975437195
0.18437922975710053
-0.31345458773641305
0.670374246309446
1.2483150983903546
0.6527956744431983
-0.4132805342385783
-0.4768487315201382
0.17397676415207117
2.332122040170503
1.388567049285614
0.3626700408829893
0.9010509272640682
1.0973213532138502
0.9253288099203746
1.0235321182096557
1.2849481419461732
1.9445924903215452
0.7513852858180079
0.15834957527942287
0.3084915651739272
-0.1972481730192024
0.3284937415890608
2.001075633705854
1.27878106755277
-0.28903569969540394
-0.6246545586393363
-0.6677464958476744
-0.7537797369740142
-0.3198624633733125
0.35207107517982655
0.6926264178042872
0.3524104141117295
0.238484335474896
0.5252055141176261
0.06923130226565909
0.3318825134229391
-0.1589599386581005
-0.43250182781108976
-1.6097734553807492
-1.3664608948023145
-1.378710749064135
-0.6853521485663542
-0.4752772997896689
-0.14243296148173887
-0.008665896238133483
0.14746613858681207
-0.35545188989524856
-0.3882119014137737
-0.006109548815515323
0.27909359740803535
-0.17359680599125263
-0.10860201850686452
-0.5671261561361911
0.15664331217225563
-0.08477596681996155
-0.3869766109380372
0.06420498512749354
0.36001359949642764
-0.4970137444075648
0.0496354609440619
0.4504567631622043
-0.20221585488819246
-0.19922459837142836
0.35038473514359053
-0.23271863650581562
-0.21477582287771627
0.41095124460067173
0.34263584184212764
0.3018731237782816
-0.1849306251275417
-0.16175001178800724
-0.06941818418589439
0.015156215023411393
-0.16745333857446898
-0.30210773009123754
-0.24663741873171258
0.2498283065605977
-0.23441582211573248
0.2900355560619337
0.27025622964527846
0.37120476987772744
0.35367298421273435
0.19079575129888274
-0.11021279107850708
0.17017079547469596
0.03408088808230707
-0.014852269922458616
0.06972341860555001
0.07481733655000243
-0.09749090645610269
0.016978192535525873
0.13932483589338598
-0.4482998390787118
-0.407144333294911
-0.09485755101947156
-0.3971287233874903
-0.011599730855728334
-0.15075871949562192
-0.48316471073566136
-0.2397922160956461
0.155527293680555
-0.29091666300130054
-0.11869284495424101
-0.10780778749193873
-0.34421537775357075
0.20632821412470778
-0.3618079650088567
0.07027365920252468
0.21129706434881174
0.964654451202011
0.8326954183015557
0.6914967053259627
0.3325873345027119
-0.05612181595362731
-0.42085636535263177
-0.6065759418128698
-0.44007005745902
-0.4546593087947322
0.42321877176902617
0.34230168562674756
0.6818278513010576
0.9744892704158478
0.7699410940982692
0.7532336123652474
0.7622216812906185
0.25331588108943587
-0.08457191365786929
-0.36652047786786945
0.10337659555769334
0.556983968737513
0.10738659117605456
0.019476550802284373
-0.3911923505360717
0.24670363324384106
0.28972162930352585
-0.18113512957118544
-0.3745541511027248
-0.7461870499495579
-1.388172945657928
-1.1291318406977922
-0.1877115547593759
0.4560403217175172
0.1517208229433674
0.4637950365958012
-0.35093417873939836
-0.43600820208222724
0.17093386005047584
0.33090167776411294
0.19541130005334953
-0.6376268564705653
-1.0814140063798743
-2.127152703245409
-1.371041182768217
0.3174794448632774
1.7370496502672235
0.918876083478861
-0.166836391478397
-1.0242523620260628
0.1765444544605164
-0.4921550342533587
-0.3975815099319424
-0.21359008155223583
0.06912962586439195
-0.4745696872482506
-0.7706268183044793
-0.2726842087372311
1.1210054488102192
0.9679446454611169
0.4340468076128279
1.0737347843907632
-0.19925787866106193
-0.777052233244838
-0.11697553835792908
0.30984485034368786
-0.13535227549726625
-0.12127434180497866
-0.2414536154702646
-0.06616730948087302
-0.5137891031769319
-0.019581943526969594
0.008609311498649314
-0.7327356051451952
-0.30519576406890825
0.7663568729001154
0.6681903346328377
0.24622541890456962
-0.390907882000749
0.38406082539517516
-0.21153720270534634
0.36307316445219445
0.099752391531619
0.44076788290729463
-0.9002475793139424
-0.8141734372823707
-1.9988717839644088
-1.8171635497480085
-1.023640225589691
0.4846395218566805
0.9323579126219433
0.6137470754177267
-0.5183394220812421
0.33501622464353825
-0.11963254745713015
0.11410685414159286
0.5836349708847905
1.542494336696216
-0.8654770384885752
-1.7980917306968132
-1.484222355352708
-0.9491266940956903
-0.5135062722359508
0.9061625364597701
0.46750768418688265
0.15105375681160527
-0.2790150997967645
-0.07039935976984661
0.006041639897589551
0.33970773320833336
0.4788528461193126
1.5969259959949444
1.177254254625623
-0.16725066411293624
-0.5237779959108332
-0.42087630654051744
0.7588942838645791
0.28843219274792165
0.021266712202475124
0.4358768324630099
0.12075715027638918
-0.5119110798767271
0.14741483147313572
0.30030935314552915
0.19401801697452775
1.2478785513872859
1.549866905446014
1.5201907057890756
0.8489875987056386
0.42437881316176534
0.02768291790069009
-0.38446688973811816
-0.44061174355890564
-0.21418493195919744
-0.08249522151089018
-0.37936313524451454
-0.49232256481877834
0.38294908051642934
0.05344954584872254
-0.22001180154303426
0.7978540920151709
0.5908946265395497
0.3343066278838441
-0.6566303725196353
-0.5036130236794922
-0.1919256334091573
0.2875597153800438
-0.4568530621041417
-0.11868903885923089
0.18180453886181047
-0.11394663837682889
0.40494004139364886
0.31044716669695205
0.21400079205433764
-0.31060990070043426
-0.12871275812580724
0.27981002384291875
0.4622095072090682
-0.44658394338781293
-0.23510318283563325
0.23274101400420544
0.09381666902005237
0.3866210870216329
0.48679363159473493
-0.058865328667031806
0.17274282357448095
0.1351055281588878
-0.12217203169875862
-0.3049383816176147
-0.17120752376573223
-0.13943369451530324
-0.3348959023064862
-0.05061077897974189
-0.09227460812605107
0.24366936402672165
-0.35300162228757365
-0.4462555322237089
-0.0359479029765527
0.35881607530754445
0.06348952290388858
-0.12221397504232454
-0.3294334448330688
-0.34839139729948343
0.14310376822547335
-0.15351332554972755
0.30267587226650133
-0.5857457744569281
-0.792540007285632
-0.8572483462066741
-0.5792333949823738
-0.15618096219855637
0.1621485550426213
-0.2678151846755936
0.3611715832062221
0.0100908884302792
-0.17200636205715528
-0.33607611127507625
-0.24874821058504293
0.7350244647720315
-0.1776942098209845
-0.24227897895004943
-0.9912982877850595
-0.7829314079576808
0.2290614145951869
0.4466652160003954
1.175131542527463
0.17668558135243967
-0.2952663652308001
-0.503354336826381
0.26843356122752526
0.16599755825225754
0.10593035948709571
0.20331731425511473
-0.1469429449564381
-1.7271929864476383
-2.465513731979119
-1.6854911219626971
0.11757471492194078
0.36288328959899996
1.1232656195894548
0.5433236272569208
-0.03229469771508695
0.41321526614805176
-0.2571070865615556
0.08046184324199614
-0.14206429648980468
-0.37635472143785936
-0.418033013350367
-1.3270900717574183
-1.5520592474558021
-0.33115600783716487
-0.14374782689926766
0.010540106623180305
-0.04352002059063957
-0.07943836945116388
0.1811619287768148
-0.03000120711031658
-0.06559299448078885
-0.05044097112956229
-0.015989650269561295
0.5163098041764695
0.6903098035447176
-0.22855671066901145
0.4382063354525501
0.4649415246786943
0.7191462542289108
0.1443381589658393
0.4614544410333883
-0.0019956264343131435
-0.09540965931358694
-0.15258520779869733
-0.37705174360190596
0.9522594625701394
1.791233857426291
1.2945782212370336
1.0920551864181454
0.1321047677949551
0.0982607151095322
0.9873177715797903
-0.012803218220417951
0.033847576291089476
-0.27451455284541826
-0.06031704795323601
0.3515278958875316
0.05439975291206332
0.2240166746963629
1.0224013036476607
3.157240947229496
1.7568988697065075
0.6403208975018558
1.3432752442943783
0.7009966531693117
1.382780240090174
1.3454071794312357
-0.08313406949421662
0.24603637693633723
0.03341085014177243
-0.3903736670127087
0.5020162213965537
-0.44957770207769776
0.5142466210381104
1.2888741092352816
0.4994322077329168
0.46850466845562094
1.5812748898352216
1.2059527799566319
0.5110177502690478
-0.36815936771610536
-0.3479609458145573
-0.31425329158540066
0.2958620007613952
0.27906408187485016
-0.4081682458353026
0.014906778682181158
-0.5727884858207997
-1.253847406061054
-1.3819962039426255
-1.2770383332086077
-0.25876972792589464
-0.30481455886555486
-0.38363724342258554
-0.5935823299335641
-0.11817168719593822
-0.1031024404982317
-0.4068292891250671
0.4224704848357573
-0.071331616985442
-0.46965833101346804
-0.9678921936224177
-1.0280931711832801
-1.1930937843342908
-0.6309589551274215
-0.05388400784260055
0.06751278734770125
-0.07772746409515889
-0.17727736625136398
0.5198776335619776
0.3013338721303262
0.08518240580705294
0.409741990524922
0.5011480266529014
0.06487002516001743
-0.4481493411706831
-0.2822503017221088
-0.39905511335578114
0.18273106044458587
0.5762506668677377
0.20501205049882132
-0.01619548482669184
0.06492206860172417
0.20028903622127636
0.4755541341283092
-0.4543284253112372
-0.3453898858769661
-0.3103237304301504
0.2802433349149563
-0.09012783346277853
-0.5941692358269122
-0.8627374067184965
-1.2401832644721382
-0.8116631487251894
-0.9573347810315859
-0.6801375801811116
0.14054598245493866
-0.41351703937187506
0.1686174029764956
0.48630156980657757
0.17682073188460642
0.11356415570682447
-0.1159514523634005
-0.4511527527600091
-0.19823977829142436
0.0074931793345998495
-0.04187273387782037
0.33681964822514093
-0.21356057123811784
-0.161766115571191
-0.33309458968878125
0.05188411612481602
-0.20738848267783713
-0.20079686920106285
-0.2833136308542034
0.11849114987864512
0.11693046279387498
0.14661764684482573
0.19251975253514766
-0.21512973226190507
-0.21939050239434502
0.22302596383342493
-0.19991336162081613
-0.35602743635916373
-0.08489458257742548
-0.1594887388678256
-0.3495913960886027
0.4402886339682457
-0.1515297483946809
0.06507747715438027
-0.2544920737084046
-0.3851662097131136
0.3252066797459462
0.25074824150097186
-0.5852112269600507
-0.10268317196809755
-0.1962572592323373
-0.6669610703088298
-0.24730953389251858
-0.3455886675677636
-0.06532527055063746
0.21993943590200396
0.27668028066385386
0.23582537841094933
0.31280380309529615
-0.22715050895003971
0.46496680255724016
0.13172127615821005
-0.13560304327403686
-0.13211908867491648
-0.5293261174588937
-0.5592138024023381
-0.9418630944609024
0.17563040054448975
1.217780914670544
1.2960055627334721
-0.19327035266108014
0.4097313120745318
0.430240643399457
-0.36625925623508265
-0.5077327147175145
0.49294930422492794
0.5242779039454923
-0.01822040051409507
-0.21360053273523574
-0.3949968541655006
0.3049917566461207
0.18607344649415952
0.8977356054739819
1.8617694377291587
0.7690081640848849
-0.41168003263289793
-0.2800755952730896
-0.329293171526418
-0.3263518202390848
0.3959345431021126
0.3652558687152772
0.2212659096038589
-0.0024227594768568006
-0.28999174804547906
-0.6048841068701069
-0.5236434557532337
-0.45791889502982347
1.0204529258951311
0.6788059419929316
0.4479360873413601
-0.023487375321230054
-0.4123424387262087
-0.24585375228531423
-0.03236354435839941
0.9213147357430082
1.777799300502742
1.468159585019849
-0.08021746242967528
-1.3352595440084016
-2.6807219732498297
-2.097698119573389
-0.065782872205926
0.556052654690379
0.10697739714337523
-0.27244316309168404
0.20004919132345073
0.07581746557809585
-0.18918157305714878
0.3256881449625007
2.050939452160659
0.9231108398309121
-0.04021395571233751
-0.02181611327368191
-0.8969701111536447
-1.1227280322254576
-1.1273604889834703
-0.09122514614110057
0.09390532976469336
0.4022999547323442
0.5370645425890683
-0.09347749954328556
-0.9063490673005231
-0.9598841962440473
0.1090241764895777
-0.5339353720573536
-0.5994463773649887
0.7248834325208993
0.2535024354108426
-0.3401337060783138
-0.03922131137189155
0.3857376028642567
0.25327601503974634
-0.3349437031518878
0.5610005598962349
-0.2747262557119938
-0.013955082271518917
-1.1700077255945545
-1.0199574530639204
-1.3779495675861633
-0.5889995403553937
0.7669533731299203
-0.30809351557831416
0.44799106214472395
-0.0465193541692025
0.41386704641129246
0.48782872137001393
0.44006098632196017
0.3558349692509738
0.04826530501465217
2.2647657471566567
0.3376823838044762
-0.11785460402384278
0.37243617424247394
-0.32817419118968766
-0.10504277219199426
-0.2650725760760946
0.3657223345758229
-0.0702547540926406
-0.07952321862914222
0.08302952930088403
0.29584764179950646
0.34093731078098405
-0.5470640563685383
0.9207922087260387
1.4947896560602452
0.6638544022029105
-0.03936265856394841
-0.22430053519990836
0.583555662299036
0.5338257586631819
-0.11842429144906574
0.13553563751260933
0.33264964478176606
0.27835143945571383
0.4256120192371614
-0.15323985606005333
-0.6704057817321192
-0.6250958822430575
-0.5122428742585885
0.023649246810885358
0.359532395080452
0.3779488420511587
-0.08097832991541357
0.07534723890072564
-0.3375203853604385
-0.27804629774674133
-0.042146793282114625
0.1827818799465003
-0.3429892659040802
0.42443972901944066
-0.09106538577506554
0.04203911575529872
0.09184588992721011
-0.2083681638612054
-0.3861588447751718
-0.2277968635222028
0.12881723283998317
-0.15203582267594007
-0.007039135055560761
0.3923625273053753
-0.08125398687733713
0.480759986635407
-0.09277104961259104
0.22239276318043585
-0.41167747267360827
-0.27605338171751476
-0.3829863642457669
0.2035378644504528
-0.1319229215204758
-0.016668988086887753
-0.15979016679292762
0.3127182281446188
0.38027389032409875
0.03754857198766441
0.3400435109714555
0.37896090604742916
0.13480240269909644
-0.15566768215640273
-0.4947177811608939
-0.3833838202830015
0.06469618327862704
-0.04592357664219634
0.1458783460602818
-0.004986463917376271
0.2379672737835587
0.4233595181499594
-0.11563516253606725
-0.032621702383699484
0.24778343385026147
0.20820738597755425
0.4484869464025947
-0.4406549035908002
0.3192331743666755
0.01211266685164311
-0.4109563018341456
-0.3777684830680892
-0.23663193358673246
0.5485710017455787
1.7418650472330717
2.8784562018684707
2.0857941553061847
0.17457053205694245
0.08297323908565722
-0.08314174849516176
-0.4835137035369586
-0.08741357866656013
-0.32379502270939203
0.15751874718355932
0.001603422085768616
-0.8363943842484594
-0.5202200187266744
-0.3604559879097342
0.5290542537793618
0.7206451034583081
0.10096148495647829
-0.7048257270451354
-0.40259544713567147
0.30041871238862755
0.40699491119893816
0.27431995813019117
0.31647185584940457
-0.570238484409182
-0.4331808087509327
-0.19327964210522813
-0.31146004319183823
-0.024316765247025567
-0.3062878131724952
-1.301034616838995
-1.5864623465060876
-1.3211575679962002
-0.5903414989699809
-0.3523366052394186
-0.03619000184117457
-0.4422779934156355
0.39403490318801093
-0.05775142397098038
-0.5178657105036053
-0.17783127351617553
-0.14450212502781934
0.2538551630179267
-0.4672212056839948
-1.290180783872736
-1.7778186731418324
-1.6329051263474017
-0.3753625730663086
-0.011953465897624232
0.4319102051083607
0.21067963743966572
-0.17744493913815437
-0.2483757979765093
-0.0008316931403522368
-0.20417361322777897
0.09248392566436778
0.12837336120589216
-1.224637549521288
-0.8650113377247376
-1.2878460553869298
-0.791018724143852
0.3667027985641214
0.02157241003030412
0.05648688170826239
-0.4782554359404724
0.24619311403855315
-0.16537620693896443
-0.20306261848646442
0.41453639775144063
1.0617587829025092
0.04516437532714711
-0.3852776372916722
0.4115091349589733
1.1869369782273007
0.966019900396718
0.67799036895886
-0.36154373684011676
-0.0602909192081906
0.16364193958750511
0.4019595519992245
-0.3518557246947876
-0.87600569586715
0.819385522356363
0.28910032652951284
-0.8273225943132585
1.3731489592132216
0.1934091713771524
0.6222231220560791
1.744245515865294
0.6664755977432779
0.4344621286583911
-0.16910692771307886
0.3943448880085464
0.0866399034624708
-0.5041022474069853
-0.5202828316254728
1.3706722042101553
1.5734226193695056
-0.20165808117427697
-0.49282281625699925
-0.05063299252531557
1.8449121373345632
0.5841446149699031
-0.30400700279264276
0.2503204878246207
0.04394216699650333
-0.2846664836855132
-0.35475764982708546
-0.7786754580277381
-1.0803988655423435
1.5270966005547386
2.247175255958968
1.3582131192559
0.7676303114380459
1.408704643896271
0.08623386532185683
-0.4818551958856904
0.00779133997901181
-0.20837978645939456
-0.29548456326676703
-0.014264697103937707
-0.39498887428750373
-0.8497451383190174
-0.9934109301383363
0.007209571126944594
0.4234952868637856
0.7058743424794499
-0.17523798576395505
-0.3464804047061028
-0.056040705095070184
0.07225012475307278
-0.6839222599139444
-0.38267409801999697
0.2104593704622733
-0.03762989665003087
0.4656439331017356
-0.43315255644636735
-0.07017634720857696
-0.6377812599528836
-0.916550837542584
-1.378854309863439
-0.8765827793287888
-0.7768370241994943
-0.7855306401507862
-0.45759740918422503
0.14414268860513585
-0.2629291785937835
-0.4513139477148338
0.05799563015242344
-0.3200387278810711
-0.2513821498546115
0.17234376640504565
0.2906086057971403
-0.063585641511908
0.30791509363272745
0.2157578869072268
-0.4013020672902093
-0.43935625368497194
-0.36189174452722767
0.18426445736109012
0.4381923035023455
-0.057978346953920144
-0.04403559816423711
-0.22891363280927438
0.22834927121092666
-0.21670288344413952
-0.4522947071862592
-0.4025126750961531
-0.3345676487566073
0.023926876101212798
-0.3513371820315707
-0.1946398677327885
0.1051699806959475
0.23818846709253919
0.21326231825990272
0.2275474914438097
0.10685802387786192
-0.453925659284678
0.34274252768067337
-0.1930112168788863
-0.42920263213178533
-0.1498115427792556
-0.4847389247129203
-0.01161497169932613
-0.2285785320798365
-0.2322799506593043
0.5158907909715623
0.436654005821956
0.47305360294763077
0.3326231883987027
-0.25275675867780734
-0.3322169807257136
0.45839834911582394
0.2028236141666809
-0.4256679500962052
0.2212230320134205
0.32570411178010217
-0.3746885936802321
0.3737774155451468
0.32184697993878575
-0.022706592998455573
-0.0778103606836359
-0.4203244823870979
-0.05431250935054645
-0.3720354985956062
0.3430805275344126
-0.31093535096862795
0.40942734469742803
0.13804632852148382
-0.12445090620471946
-0.7042971803063778
-0.7961656126593151
-0.2872951745220323
-0.7797813005736786
-0.215003378190003
-0.24704734355465857
-0.24434727364077435
-0.049453889080102065
0.13013753216235935
-0.020564319515706427
0.4704935303902017
-0.205612105628986
0.7668833306073203
0.17919092328108285
0.7513151229911754
0.17395216572999297
-0.32227896145925694
-0.40298436769692864
-0.634548809188021
-0.3782763925810502
-0.5149647506129784
-0.2623852788812359
0.03496901634920943
-0.28343490000669835
0.08137811238425971
0.8695495246456385
1.7148538725845934
1.3205330922342124
1.1381696806837391
1.663327216962885
2.412194230028867
2.1642838782656466
1.518037111499504
0.8849385703661808
-0.49510839056234984
0.21663427009104702
-0.3070693826826853
-0.3045629344315409
0.7922899889171413
0.8819888433012756
0.5596905947861749
-0.14407881958630442
-0.3370373925860653
-0.40457110509494465
-0.14072161074864808
1.5224650538819404
1.2105845659504022
0.5593681419870488
0.15313028354394945
-0.4514987541902795
0.34928821125866066
0.4262647015984537
0.22618731392535427
-0.29393634329123164
-0.8874841760946037
-1.6346035364749614
-1.8009592260516012
-1.438582600275262
-1.5994521345864052
0.21272902869882895
0.9412519859507111
-0.02011912131514124
-0.5105831682680603
-0.41521829400430993
0.2978291597996873
-0.4018046827186044
0.40695825878683844
-0.5663634777389605
-0.9096751441145029
-1.5088557269628669
-1.9798205890993217
-1.9883010086369957
-0.2607830023480464
1.1123820079576299
0.6269423900911225
-0.06984781233669592
-0.29929766346636383
0.4781881855062077
-0.3025813584408942
-0.20162746320595124
-0.0077007048536900016
-0.5042328865637308
-1.1713957925919056
-0.7564794946853396
-0.1766501074254304
-0.10957218752800099
0.6459147611238011
-0.032888641521124265
-0.049656513512329484
-0.5791191755774606
-0.6169151979801636
0.14566083800397595
-0.1514623357772574
0.2860357538606341
0.17065338204722874
-0.16171381947948618
-0.6320581643814388
-0.4673312279762685
-0.27203122997599644
0.4193841627241162
-0.30757037985485214
-0.6818166139655637
-0.2359081026452257
-0.7132736540729342
0.0728665579670534
0.12373234799207689
0.1815813339917383
0.23247592092059643
-0.0324251563147752
-0.39855052602910707
-0.7821739670198335
-0.8859407525105313
0.5825826019134412
0.10259840094266293
-0.2893910316871699
-0.42429566960078047
-0.4023439603452332
-0.361114356792066
-0.5705002119218356
-0.30490704279390574
-0.07999462833409132
-0.32830909392942115
0.28935076907682983
-0.5885118612494827
0.016422337958638362
0.019249108349976143
0.5689579387653529
-0.3666528163034553
0.08830863984875109
-0.44414570258933794
-0.4775255215800469
-0.48448693598847764
-0.34632583149231144
-0.5009269501281137
-0.3857416613584959
-0.16778076742581638
0.4725148782362214
0.12021731192897707
1.5403798349292943
1.4579704533942262
1.7258239245464002
1.3184625426240335
0.8279947187462064
-0.164006124239213
0.14669436928815885
-0.3091147141784385
-0.15856124271710306
0.2735400822058531
-0.05769726890183813
-0.432567909940967
0.024053109028958436
-0.3801271587989064
-0.01037873763959289
-0.24042994600261194
0.22685631310863622
0.7112997226749879
-0.30203801155634297
0.41677882400161864
0.2081818862919777
0.08473694681451266
0.057156724528547316
-0.32947616330344204
0.009732205620845395
0.1631484298236872
0.05141153137385825
0.2028831203925566
-0.45464098262748825
0.04792763422291726
-0.15844047493489133
-0.3423795918207287
-0.19636318512399406
0.35247465072337136
-0.22961278990978892
0.4670627516980444
-0.13411349244761142
-0.09057128514108526
0.14878797140367833
-0.19307244395047835
-0.05814522301388411
-0.1099079008472404
-0.005492541141219315
-0.14101243526803037
0.15698506599263015
0.21881623795339353
-0.029569435943909112
-0.47690720867457564
-0.4288939369335891
-0.4758111451203231
-0.16065908884927832
-0.12220230444866362
0.09452547340150211
0.07715797197804314
-0.01228211423345185
-0.0049680291746865505
0.4067172802956543
-0.5008021226212328
-0.7722991145316839
-0.197333544665875
-0.6457291497641623
0.9503119417050959
0.8992954584058074
0.3114256714080354
-0.0395743759319803
-0.5004404196570158
0.23716935653678609
0.3788070623090924
-0.2896304083848441
0.20527587601108815
0.005304758744396566
0.29111865443416807
0.40562026971789084
0.6271484912205453
0.18519363727567661
-0.042727008857539536
-0.8326852610099362
-0.42252421532232914
0.6281579341387463
0.6521130375416403
0.2197376357954093
-0.01281757759934659
0.43463139563965986
0.15755512242803107
0.5954151455501395
-0.4818735820560123
1.0397770513767752
0.6191061349845252
0.08076106904646431
-1.5264707816479821
-1.4634785930486371
0.05292134751473326
1.6179689569921976
1.6794064883252064
0.38579075933515883
-0.20489974748264086
-0.1610907601470186
-0.03938752387708108
0.6984848510758968
-0.301167143937105
0.08704570188185666
1.4025518290398105
0.7308400118930691
-1.177324173174184
0.8164958352516031
1.5120979207833918
0.46901863083913264
0.4984551732232933
0.2637938891655298
0.00016478496274908143
-0.24978955061060923
-0.20390695383550012
-0.15146194675419056
-0.439370797656709
-1.2398931924303631
-0.20089429980652188
1.7004094903422056
0.9087854225759405
0.04150117767032863
-1.360602220229753
-0.4899330086608947
-0.22769112420101162
-0.15436598099758245
-0.17563414900078342
0.35484584569519706
0.04468295445263615
-0.5744710626179104
-0.6270406306575272
-1.5944487373759912
0.6219666027839721
0.3352336977119687
0.33826714725976054
-1.4369150709032907
-1.254634187811669
-0.6518213587661416
0.10825019700544189
-0.461662977452032
-0.31172802254110255
0.0020570942358157113
-0.21323530510625324
-0.2704813667074449
-0.5859965660942843
1.2983243417839267
2.209927674044327
-0.3243152476751748
0.37022587215593095
-0.0976628340607477
-0.8698877507527116
-0.3862263534539237
-0.45333788774273515
0.19488136376011167
-0.4057519323393893
0.3451868161394872
0.015383968441297661
-0.985688287109972
-0.08821974014521994
2.4408275590089965
-0.33087553005531156
-1.0428936480452382
-0.26578385136957694
-0.45137514374497856
0.09682266154447618
-0.4083721042918021
-0.6311802680087327
0.16762565261463516
-0.21722767245485364
-0.06138560329581906
-0.42555893114865356
-1.0695286131804373
0.6320271765049574
0.14500584414738102
-0.5265718125613437
-0.07889902518609469
-0.6520147580420574
-0.011309804606264061
0.33888370763460746
-0.4884089877953019
-0.4389623146845707
-0.10781639601910067
0.10006626404949469
-0.09459554137002973
0.3643633477634259
-0.5860131486935355
-0.03293830212288866
0.9184337249522859
1.9436336675024075
1.6650061278488582
0.8918618857344345
0.738806689300387
0.4821488715677329
-0.003872259508139064
0.400655938429977
0.4877345420045901
0.4447588161567513
0.28129790451702336
-0.4833875782306107
-0.30683572911533175
-0.11921460512406414
-0.6352692176430546
-0.4819478661429768
-0.5189803099505715
0.4188524981620596
0.41793066435084014
-0.22606767202873987
-0.09861367555953146
-0.01009722010845413
-0.019899815217222394
-0.21725857540231389
-0.4633810710351085
-0.16262544887390734
-0.0031717852122010656
-0.40846077730497565
0.22412583863914537
0.33866790657847556
-0.20000515494311621
-0.006347074724580385
0.4651387458105128
-0.4418574224528794
-0.2678622860968173
-0.12838531108151796
0.21170943079237667
-0.1291732899903863
-0.012036465020974663
-0.10492391129906178
0.16554439992058248
0.2583144172239952
0.2312191240334501
-0.10286797896919517
0.43250498259867
0.1815618289573724
-0.1763830236246931
-0.3818362735193209
0.3391387232314177
0.2047695435621429
-0.2728753279090583
0.3922953118232004
-0.1939607508552851
-0.1823856349400582
0.22101231073437408
0.2206342949218685
0.2020132238209504
0.34692577097809385
-0.29896419971628996
0.20893092843473735
-0.6283716927081202
-0.04196058259219957
-0.08080097515779294
0.2747687399810854
-0.0415246508233559
-0.03004389281694884
0.261382631360102
0.0032359033838774815
-0.07891843323165718
-0.35953785350990297
-0.02573336943331068
-0.4886313148072004
-0.5445662927865672
0.05093473485481222
-1.0148083887309103
-0.7961723939234837
-0.794635423147728
-0.8265700085316432
-0.19490049126253112
-0.055636480402898696
-0.22877609378060393
-0.42346788433025645
0.2470132125688324
-0.042721283749431196
-0.7808961757799519
-0.4086103028569942
-1.339979344892755
1.196186185893811
2.721965136286643
2.1398513781433315
0.5340643925656076
-0.7980354605375122
-1.159456865777613
0.17307594980143876
-0.0313282285513174
-0.05027609051713703
-0.5288246954254942
-0.7146331314859485
-0.9661273651513499
-0.2872220451950089
0.3494642203207327
0.21244813686542424
-0.46878306780914714
0.4181375056151355
-0.3034328217684193
-0.5116079898372916
-0.4393942225923438
-0.30811724377750116
0.28405322445591524
0.13140890692350343
0.208655565425762
0.4189400962623382
0.853535238985301
1.4817729224686413
0.587919857424659
-0.7663413268336625
-0.11392787695038335
0.057592875681576707
0.8738181566557807
0.5254861284542981
0.42545043769188917
-0.37362453729514156
0.04350220413084572
0.3431428672896578
-0.01852381908258163
-0.1778100648212258
0.9409096361271818
1.8205894999621246
0.43096907852425276
-0.29413997553081667
1.14276212370738
1.50625487919353
0.9731743234538628
-0.1310173197526312
-0.034243916373358184
-0.26449741039426466
0.0408777188431665
0.3050740697281435
-0.514701271774525
0.39304369997731564
-0.6000138190735066
-0.15862082193844418
1.793930869669313
0.6313461718662114
0.5848260160816842
0.8784994885288586
-1.0109892818759283
-0.38415849043560646
-0.28791172015140926
0.4905298904493838
-0.04657215521345099
-0.39750729512068683
-0.29484531339277953
-0.4685356654283125
-0.5918852053269407
-0.3175303367135573
-0.3553615025897313
-0.12460133164731953
0.31084131479239835
0.265720691423145
-0.7327422416395601
-0.6158134470381431
-0.0703173990840008
0.2851844652570636
-0.16089857157356127
-0.04296365029441
0.3399057762105747
-0.3717947392599926
0.08741619119505317
-1.0165053931515322
-0.6702020297197501
-1.1200022075337357
0.036868151267709225
-0.6282105365767344
-0.04624048580367211
0.398378795785768
-0.25279216226230755
0.336275235173221
0.38236151961209625
-0.3899905487332839
0.0009876464266107992
0.08631925393890784
-0.23413140061485047
-0.1401836812564601
-0.60195531338458
-0.45600403172248366
-0.3173323551940025
0.23785814167891892
0.1981809177044283
0.1929635225937188
-0.11220037633148575
0.07511707443462351
0.32591150318793555
0.1434674668289954
-0.03760201003989851
-0.0841665140627326
0.22762348051241915
-0.7448710216320801
-0.49829291458540964
-0.7349569928226658
-0.7348187682060474
0.28477990372544815
0.1268702740523701
0.7504169365653897
0.5807090186065377
0.47082999811906784
-0.14225070828372402
0.42698034746552466
-0.04821378596398255
-0.04947832245948985
0.1763690154803221
-0.41078956191226185
1.4360936338729242
0.6045913597853616
0.8247552452779895
0.9091630761864731
0.43733670348183573
-0.2559379956971409
0.3972305518435494
-0.1789756776754685
-0.32276102877479285
-0.23594889780626221
0.34757434202469184
0.28462094525293963
0.273433298915022
0.08832555428335852
0.15265951215758441
0.20711776080065353
0.05096894799171583
-0.06055476517343433
0.0656450864223099
-0.11042893461429615
0.18290269401096906
0.1521347778488692
0.08391444405418239
-0.049390314187329296
